\data\
ngram 1=12
ngram 2=16
ngram 3=16

\1-grams:
-1.2455126	<unk>	0
0	<s>	-0.30103
-0.7712964	</s>	0
-1.0871502	I	-0.30103
-1.0871502	LOVE	-0.30103
-1.2455126	A	-0.30103
-1.2455126	CAT	-0.30103
-0.7712964	DOG	-0.30103
-1.0871502	LIKE	-0.30103
-1.0871502	LIKES	-0.30103
-1.0871502	HATES	-0.30103
-1.0871502	THE	-0.30103

\2-grams:
-0.37883157	CAT </s>	0
-0.47539735	DOG </s>	0
-0.46736142	<s> I	-0.26823747
-0.5362427	I LOVE	-0.37011093
-0.27702975	LOVE A	-0.11650556
-0.27702975	LIKE A	-0.11650556
-0.27702975	LIKES A	-0.11650556
-0.8914042	<s> CAT	-0.11650556
-0.8141489	A CAT	-0.11650556
-0.27702975	THE CAT	-0.11650556
-0.7336293	<s> DOG	-0.11650556
-0.33756414	A DOG	0
-0.5362427	I LIKE	-0.11650556
-0.68282336	CAT LIKES	-0.11650556
-0.5362427	DOG HATES	-0.11650556
-0.2668757	HATES THE	-0.11650556

\3-grams:
-0.25575757	A CAT </s>
-0.25575757	THE CAT </s>
-0.47539735	A DOG </s>
-0.26823747	<s> I LOVE
-0.097518265	I LOVE A
-0.19424663	I LIKE A
-0.19424663	CAT LIKES A
-0.62900627	LOVE A CAT
-0.19424663	HATES THE CAT
-0.32868728	LOVE A DOG
-0.23151128	LIKE A DOG
-0.23151128	LIKES A DOG
-0.62838894	<s> I LIKE
-0.40447235	<s> CAT LIKES
-0.33936784	<s> DOG HATES
-0.18780182	DOG HATES THE

\end\
