\data\
ngram 1=11
ngram 2=14
ngram 3=13

\1-grams:
-1.1500942	<unk>	0
0	<s>	-0.30103
-0.98612356	</s>	0
-0.95963395	I	-0.30103
-0.95963395	LOVE	-0.30103
-0.98612356	A	-0.30103
-1.1500942	CAT	-0.30103
-0.98612356	DOG	-0.30103
-0.95963395	LIKES	-0.30103
-0.95963395	HATES	-0.30103
-0.95963395	THE	-0.30103

\2-grams:
-0.4145881	CAT </s>	0
-0.520535	DOG </s>	0
-0.5158851	<s> I	-0.30103
-0.25580865	I LOVE	-0.30103
-0.25835732	LOVE A	-0.30103
-0.25835732	LIKES A	-0.30103
-0.79482377	<s> CAT	-0.30103
-0.6945276	A CAT	-0.30103
-0.27133006	THE CAT	-0.30103
-0.7529518	<s> DOG	-0.30103
-0.4145881	A DOG	-0.30103
-0.65455407	CAT LIKES	-0.30103
-0.5158851	DOG HATES	-0.30103
-0.25580865	HATES THE	-0.30103

\3-grams:
-0.15959379	A CAT </s>
-0.15959379	THE CAT </s>
-0.18654467	A DOG </s>
-0.10933588	<s> I LOVE
-0.11024369	I LOVE A
-0.11024369	CAT LIKES A
-0.45465806	LOVE A CAT
-0.11481138	HATES THE CAT
-0.35410798	LOVE A DOG
-0.15959379	LIKES A DOG
-0.21412341	<s> CAT LIKES
-0.18546271	<s> DOG HATES
-0.10933588	DOG HATES THE

\end\
