\data\
ngram 1=12
ngram 2=16
ngram 3=16

\1-grams:
-1.2455126	<unk>	0
0	<s>	-0.38021126
-0.7712964	</s>	0
-1.0871502	I	-0.30103
-1.0871502	LOVE	-0.30103
-1.2455126	A	-0.30103
-1.2455126	CAT	-0.30103
-0.7712964	DOG	-0.30103
-1.0871502	LIKE	-0.30103
-1.0871502	LIKES	-0.30103
-1.0871502	HATES	-0.30103
-1.0871502	THE	-0.30103

\2-grams:
-0.37883157	CAT </s>	0
-0.47539735	DOG </s>	0
-0.34605697	<s> I	-0.30103
-0.5362427	I LOVE	-0.30103
-0.27702975	LOVE A	-0.30103
-0.27702975	LIKE A	-0.30103
-0.27702975	LIKES A	-0.30103
-0.97058547	<s> CAT	-0.30103
-0.8141489	A CAT	-0.30103
-0.27702975	THE CAT	-0.30103
-0.81281054	<s> DOG	-0.30103
-0.33756414	A DOG	-0.42596874
-0.5362427	I LIKE	-0.30103
-0.68282336	CAT LIKES	-0.30103
-0.5362427	DOG HATES	-0.30103
-0.2668757	HATES THE	-0.30103

\3-grams:
-0.14935607	A CAT </s>
-0.14935607	THE CAT </s>
-0.12465095	A DOG </s>
-0.40290344	<s> I LOVE
-0.11679041	I LOVE A
-0.11679041	I LIKE A
-0.11679041	CAT LIKES A
-0.4858448	LOVE A CAT
-0.11679041	HATES THE CAT
-0.318913	LOVE A DOG
-0.13677856	LIKE A DOG
-0.13677856	LIKES A DOG
-0.40290344	<s> I LIKE
-0.2191156	<s> CAT LIKES
-0.19013435	<s> DOG HATES
-0.11325299	DOG HATES THE

\end\
